{
    "BatchSize": 4,
    "SerializedLayers": [
        {
            "Type": "InputStandardizing",
            "UnderlyingSerializedLayer": {
                "Bias": [
                    0.0,
                    0.0,
                    0.0,
                    0.0,
                    0.0,
                    0.0,
                    0.0
                ],
                "Weights": [
                    [
                        0.7749607269549988,
                        0.11979702940366897,
                        0.49463222141942587,
                        -1.079992457403362,
                        0.6490780187246146,
                        0.5488709878244552,
                        -0.056347495909444885
                    ],
                    [
                        -2.1735987567681194,
                        -1.7251116291525133,
                        0.12439757847516796,
                        0.34786978229247056,
                        1.447868500777476,
                        0.8509076422366347,
                        0.10288226167791474
                    ],
                    [
                        2.7089712802432535,
                        1.0847887189521146,
                        2.146271138693574,
                        2.4504794345616236,
                        0.3133640348319289,
                        -2.3641604376005216,
                        0.03555924936102105
                    ],
                    [
                        -0.5825766539552449,
                        -0.24046549344801837,
                        -0.5351989085473793,
                        1.5833112012005188,
                        0.2134290725408877,
                        -0.6561716454573332,
                        -1.0329307396297052
                    ],
                    [
                        -0.24665456226691945,
                        0.6934899839882497,
                        0.2093633986224639,
                        -1.0378337276225942,
                        1.1187013514591566,
                        1.032229707889228,
                        -1.3904842875936338
                    ],
                    [
                        0.3939943821311529,
                        0.476808984374882,
                        0.4354813153431516,
                        0.604498724374411,
                        0.7486927962217796,
                        0.08560290463679177,
                        -0.6482323879388763
                    ],
                    [
                        -1.452094166629746,
                        -0.15069494703240718,
                        0.7587604608082541,
                        0.4547489443207243,
                        -0.7252904294419149,
                        -1.3900132340946718,
                        0.17091678694960122
                    ]
                ],
                "ActivatorType": "LeakyReLu",
                "GradientAdjustmentParameters": {
                    "LearningRate": 0.1,
                    "Type": "FixedLearningRate"
                },
                "Type": "Standard"
            },
            "Mean": [
                91.83023507896371,
                6.453272461519849,
                134.6198411185915,
                0.2715644208985181,
                1.096581775325865,
                0.030053879615434487,
                0.3580176180814067
            ],
            "StdDev": [
                40.52715638661682,
                2.5817094089153443,
                65.99758928898237,
                0.07908834751852649,
                0.5623273104894515,
                0.005798077484258726,
                0.0851978270626779
            ]
        },
        {
            "Bias": [
                0.0,
                0.0,
                0.0,
                0.0,
                0.0,
                0.0,
                0.0
            ],
            "Weights": [
                [
                    1.8827482864676135,
                    0.11603572598337551,
                    -0.0893585347107493,
                    -0.3047720091714281,
                    0.6692554104318023,
                    -1.2361324766084356,
                    -0.680762920588571
                ],
                [
                    -1.3177606658580057,
                    0.8608104982208313,
                    -1.6865903644036722,
                    -1.3460631697713634,
                    0.11471344980332251,
                    0.5686003248061887,
                    -0.8486346024509743
                ],
                [
                    -0.749330444762713,
                    -0.7021962771686965,
                    -1.1911852126684814,
                    0.529092222034035,
                    0.9729300018316792,
                    1.62480437307209,
                    1.6113753440571665
                ],
                [
                    0.40342159087064844,
                    -1.1464295340594468,
                    -0.4119101032969423,
                    -0.531696648668538,
                    -0.8406222282459708,
                    0.04157867910718906,
                    -0.28621220321447566
                ],
                [
                    -2.1268635549469033,
                    0.8921872470059324,
                    -0.5503457257801121,
                    -1.6363025643184417,
                    0.36687586838382036,
                    -0.6501096864802204,
                    0.7095468959485737
                ],
                [
                    0.7142978474104433,
                    -0.5812592859947845,
                    1.8454550988329985,
                    -0.34592881098485906,
                    -0.1599880378228794,
                    0.1511751448728049,
                    -0.01056744305545582
                ],
                [
                    -0.035893959538699186,
                    1.7240196273935193,
                    -0.8645363176556494,
                    1.9984353828340484,
                    -2.1795666918723553,
                    1.4545512414213544,
                    0.9198690789329363
                ]
            ],
            "ActivatorType": "LeakyReLu",
            "GradientAdjustmentParameters": {
                "LearningRate": 0.1,
                "Type": "FixedLearningRate"
            },
            "Type": "Standard"
        },
        {
            "Bias": [
                0.0
            ],
            "Weights": [
                [
                    -1.5164493069325542
                ],
                [
                    0.38900876713257393
                ],
                [
                    2.0060600724796642
                ],
                [
                    0.8392301125142795
                ],
                [
                    -0.021591378387797414
                ],
                [
                    0.9165155594780161
                ],
                [
                    0.10323671043960635
                ]
            ],
            "ActivatorType": "LeakyReLu",
            "GradientAdjustmentParameters": {
                "LearningRate": 0.1,
                "Type": "FixedLearningRate"
            },
            "Type": "Standard"
        }
    ]
}